digraph Tree {
node [shape=box] ;
0 [label="X[19] <= 2.5\ngini = 0.2709\nsamples = 1102\nvalue = [178, 924]"] ;
1 [label="X[14] <= 0.5\ngini = 0.4977\nsamples = 88\nvalue = [41, 47]"] ;
0 -> 1 [labeldistance=2.5, labelangle=45, headlabel="True"] ;
2 [label="X[2] <= 2.5\ngini = 0.3648\nsamples = 25\nvalue = [19, 6]"] ;
1 -> 2 ;
3 [label="X[20] <= 1.5\ngini = 0.375\nsamples = 4\nvalue = [1, 3]"] ;
2 -> 3 ;
4 [label="gini = 0.0\nsamples = 1\nvalue = [1, 0]"] ;
3 -> 4 ;
5 [label="gini = 0.0\nsamples = 3\nvalue = [0, 3]"] ;
3 -> 5 ;
6 [label="X[1] <= 0.5\ngini = 0.2449\nsamples = 21\nvalue = [18, 3]"] ;
2 -> 6 ;
7 [label="X[5] <= 2.0\ngini = 0.4444\nsamples = 3\nvalue = [1, 2]"] ;
6 -> 7 ;
8 [label="gini = 0.0\nsamples = 1\nvalue = [1, 0]"] ;
7 -> 8 ;
9 [label="gini = 0.0\nsamples = 2\nvalue = [0, 2]"] ;
7 -> 9 ;
10 [label="X[4] <= 1949.5\ngini = 0.1049\nsamples = 18\nvalue = [17, 1]"] ;
6 -> 10 ;
11 [label="gini = 0.0\nsamples = 17\nvalue = [17, 0]"] ;
10 -> 11 ;
12 [label="gini = 0.0\nsamples = 1\nvalue = [0, 1]"] ;
10 -> 12 ;
13 [label="X[38] <= 0.5\ngini = 0.4545\nsamples = 63\nvalue = [22, 41]"] ;
1 -> 13 ;
14 [label="X[7] <= 58.5\ngini = 0.4997\nsamples = 43\nvalue = [21, 22]"] ;
13 -> 14 ;
15 [label="X[10] <= 3.5\ngini = 0.32\nsamples = 15\nvalue = [12, 3]"] ;
14 -> 15 ;
16 [label="X[15] <= 11.5\ngini = 0.142\nsamples = 13\nvalue = [12, 1]"] ;
15 -> 16 ;
17 [label="X[27] <= 0.5\ngini = 0.5\nsamples = 2\nvalue = [1, 1]"] ;
16 -> 17 ;
18 [label="gini = 0.0\nsamples = 1\nvalue = [1, 0]"] ;
17 -> 18 ;
19 [label="gini = 0.0\nsamples = 1\nvalue = [0, 1]"] ;
17 -> 19 ;
20 [label="gini = 0.0\nsamples = 11\nvalue = [11, 0]"] ;
16 -> 20 ;
21 [label="gini = 0.0\nsamples = 2\nvalue = [0, 2]"] ;
15 -> 21 ;
22 [label="X[3] <= 3.5\ngini = 0.4362\nsamples = 28\nvalue = [9, 19]"] ;
14 -> 22 ;
23 [label="X[20] <= 1.0\ngini = 0.3648\nsamples = 25\nvalue = [6, 19]"] ;
22 -> 23 ;
24 [label="gini = 0.0\nsamples = 2\nvalue = [2, 0]"] ;
23 -> 24 ;
25 [label="X[10] <= 1.5\ngini = 0.2873\nsamples = 23\nvalue = [4, 19]"] ;
23 -> 25 ;
26 [label="gini = 0.4444\nsamples = 3\nvalue = [2, 1]"] ;
25 -> 26 ;
27 [label="gini = 0.18\nsamples = 20\nvalue = [2, 18]"] ;
25 -> 27 ;
28 [label="gini = 0.0\nsamples = 3\nvalue = [3, 0]"] ;
22 -> 28 ;
29 [label="X[7] <= 34.5\ngini = 0.095\nsamples = 20\nvalue = [1, 19]"] ;
13 -> 29 ;
30 [label="gini = 0.0\nsamples = 1\nvalue = [1, 0]"] ;
29 -> 30 ;
31 [label="gini = 0.0\nsamples = 19\nvalue = [0, 19]"] ;
29 -> 31 ;
32 [label="X[14] <= 0.5\ngini = 0.2337\nsamples = 1014\nvalue = [137, 877]"] ;
0 -> 32 [labeldistance=2.5, labelangle=-45, headlabel="False"] ;
33 [label="X[9] <= 1.5\ngini = 0.3777\nsamples = 277\nvalue = [70, 207]"] ;
32 -> 33 ;
34 [label="X[12] <= 2469.5\ngini = 0.5\nsamples = 80\nvalue = [40, 40]"] ;
33 -> 34 ;
35 [label="X[21] <= 2.5\ngini = 0.3648\nsamples = 25\nvalue = [19, 6]"] ;
34 -> 35 ;
36 [label="X[12] <= 2379.5\ngini = 0.5\nsamples = 10\nvalue = [5, 5]"] ;
35 -> 36 ;
37 [label="X[22] <= 7.5\ngini = 0.2778\nsamples = 6\nvalue = [1, 5]"] ;
36 -> 37 ;
38 [label="gini = 0.0\nsamples = 5\nvalue = [0, 5]"] ;
37 -> 38 ;
39 [label="gini = 0.0\nsamples = 1\nvalue = [1, 0]"] ;
37 -> 39 ;
40 [label="gini = 0.0\nsamples = 4\nvalue = [4, 0]"] ;
36 -> 40 ;
41 [label="X[23] <= 3.0\ngini = 0.1244\nsamples = 15\nvalue = [14, 1]"] ;
35 -> 41 ;
42 [label="gini = 0.0\nsamples = 13\nvalue = [13, 0]"] ;
41 -> 42 ;
43 [label="X[7] <= 68.0\ngini = 0.5\nsamples = 2\nvalue = [1, 1]"] ;
41 -> 43 ;
44 [label="gini = 0.0\nsamples = 1\nvalue = [0, 1]"] ;
43 -> 44 ;
45 [label="gini = 0.0\nsamples = 1\nvalue = [1, 0]"] ;
43 -> 45 ;
46 [label="X[5] <= 2.5\ngini = 0.4721\nsamples = 55\nvalue = [21, 34]"] ;
34 -> 46 ;
47 [label="X[38] <= 0.5\ngini = 0.4835\nsamples = 22\nvalue = [13, 9]"] ;
46 -> 47 ;
48 [label="X[8] <= 3.5\ngini = 0.18\nsamples = 10\nvalue = [9, 1]"] ;
47 -> 48 ;
49 [label="gini = 0.0\nsamples = 9\nvalue = [9, 0]"] ;
48 -> 49 ;
50 [label="gini = 0.0\nsamples = 1\nvalue = [0, 1]"] ;
48 -> 50 ;
51 [label="X[24] <= 1.5\ngini = 0.4444\nsamples = 12\nvalue = [4, 8]"] ;
47 -> 51 ;
52 [label="gini = 0.0\nsamples = 6\nvalue = [0, 6]"] ;
51 -> 52 ;
53 [label="gini = 0.4444\nsamples = 6\nvalue = [4, 2]"] ;
51 -> 53 ;
54 [label="X[7] <= 86.5\ngini = 0.3673\nsamples = 33\nvalue = [8, 25]"] ;
46 -> 54 ;
55 [label="X[21] <= 1.5\ngini = 0.2524\nsamples = 27\nvalue = [4, 23]"] ;
54 -> 55 ;
56 [label="gini = 0.0\nsamples = 2\nvalue = [2, 0]"] ;
55 -> 56 ;
57 [label="gini = 0.1472\nsamples = 25\nvalue = [2, 23]"] ;
55 -> 57 ;
58 [label="X[10] <= 3.5\ngini = 0.4444\nsamples = 6\nvalue = [4, 2]"] ;
54 -> 58 ;
59 [label="gini = 0.0\nsamples = 4\nvalue = [4, 0]"] ;
58 -> 59 ;
60 [label="gini = 0.0\nsamples = 2\nvalue = [0, 2]"] ;
58 -> 60 ;
61 [label="X[2] <= 21.5\ngini = 0.2582\nsamples = 197\nvalue = [30, 167]"] ;
33 -> 61 ;
62 [label="X[18] <= 0.5\ngini = 0.2017\nsamples = 167\nvalue = [19, 148]"] ;
61 -> 62 ;
63 [label="X[24] <= 5.5\ngini = 0.3265\nsamples = 73\nvalue = [15, 58]"] ;
62 -> 63 ;
64 [label="X[22] <= 2.5\ngini = 0.2344\nsamples = 59\nvalue = [8, 51]"] ;
63 -> 64 ;
65 [label="gini = 0.4734\nsamples = 13\nvalue = [5, 8]"] ;
64 -> 65 ;
66 [label="gini = 0.1219\nsamples = 46\nvalue = [3, 43]"] ;
64 -> 66 ;
67 [label="X[13] <= 2.0\ngini = 0.5\nsamples = 14\nvalue = [7, 7]"] ;
63 -> 67 ;
68 [label="gini = 0.3457\nsamples = 9\nvalue = [2, 7]"] ;
67 -> 68 ;
69 [label="gini = 0.0\nsamples = 5\nvalue = [5, 0]"] ;
67 -> 69 ;
70 [label="X[12] <= 19780.0\ngini = 0.0815\nsamples = 94\nvalue = [4, 90]"] ;
62 -> 70 ;
71 [label="X[19] <= 4.5\ngini = 0.0624\nsamples = 93\nvalue = [3, 90]"] ;
70 -> 71 ;
72 [label="gini = 0.0\nsamples = 1\nvalue = [1, 0]"] ;
71 -> 72 ;
73 [label="gini = 0.0425\nsamples = 92\nvalue = [2, 90]"] ;
71 -> 73 ;
74 [label="gini = 0.0\nsamples = 1\nvalue = [1, 0]"] ;
70 -> 74 ;
75 [label="X[5] <= 2.5\ngini = 0.4644\nsamples = 30\nvalue = [11, 19]"] ;
61 -> 75 ;
76 [label="X[3] <= 4.5\ngini = 0.3967\nsamples = 11\nvalue = [8, 3]"] ;
75 -> 76 ;
77 [label="X[36] <= 0.5\ngini = 0.1975\nsamples = 9\nvalue = [8, 1]"] ;
76 -> 77 ;
78 [label="gini = 0.0\nsamples = 8\nvalue = [8, 0]"] ;
77 -> 78 ;
79 [label="gini = 0.0\nsamples = 1\nvalue = [0, 1]"] ;
77 -> 79 ;
80 [label="gini = 0.0\nsamples = 2\nvalue = [0, 2]"] ;
76 -> 80 ;
81 [label="X[29] <= 0.5\ngini = 0.2659\nsamples = 19\nvalue = [3, 16]"] ;
75 -> 81 ;
82 [label="X[7] <= 96.5\ngini = 0.1172\nsamples = 16\nvalue = [1, 15]"] ;
81 -> 82 ;
83 [label="gini = 0.0\nsamples = 15\nvalue = [0, 15]"] ;
82 -> 83 ;
84 [label="gini = 0.0\nsamples = 1\nvalue = [1, 0]"] ;
82 -> 84 ;
85 [label="X[10] <= 3.5\ngini = 0.4444\nsamples = 3\nvalue = [2, 1]"] ;
81 -> 85 ;
86 [label="gini = 0.0\nsamples = 2\nvalue = [2, 0]"] ;
85 -> 86 ;
87 [label="gini = 0.0\nsamples = 1\nvalue = [0, 1]"] ;
85 -> 87 ;
88 [label="X[21] <= 1.5\ngini = 0.1653\nsamples = 737\nvalue = [67, 670]"] ;
32 -> 88 ;
89 [label="X[23] <= 1.5\ngini = 0.4244\nsamples = 36\nvalue = [11, 25]"] ;
88 -> 89 ;
90 [label="X[5] <= 2.5\ngini = 0.4082\nsamples = 7\nvalue = [5, 2]"] ;
89 -> 90 ;
91 [label="gini = 0.0\nsamples = 5\nvalue = [5, 0]"] ;
90 -> 91 ;
92 [label="gini = 0.0\nsamples = 2\nvalue = [0, 2]"] ;
90 -> 92 ;
93 [label="X[4] <= 1150.5\ngini = 0.3282\nsamples = 29\nvalue = [6, 23]"] ;
89 -> 93 ;
94 [label="gini = 0.0\nsamples = 16\nvalue = [0, 16]"] ;
93 -> 94 ;
95 [label="X[25] <= 5.5\ngini = 0.497\nsamples = 13\nvalue = [6, 7]"] ;
93 -> 95 ;
96 [label="gini = 0.0\nsamples = 5\nvalue = [0, 5]"] ;
95 -> 96 ;
97 [label="X[30] <= 0.5\ngini = 0.375\nsamples = 8\nvalue = [6, 2]"] ;
95 -> 97 ;
98 [label="gini = 0.0\nsamples = 5\nvalue = [5, 0]"] ;
97 -> 98 ;
99 [label="gini = 0.4444\nsamples = 3\nvalue = [1, 2]"] ;
97 -> 99 ;
100 [label="X[22] <= 38.5\ngini = 0.147\nsamples = 701\nvalue = [56, 645]"] ;
88 -> 100 ;
101 [label="X[13] <= 3.5\ngini = 0.1448\nsamples = 700\nvalue = [55, 645]"] ;
100 -> 101 ;
102 [label="X[7] <= 99.5\ngini = 0.1051\nsamples = 467\nvalue = [26, 441]"] ;
101 -> 102 ;
103 [label="X[24] <= 14.5\ngini = 0.0983\nsamples = 463\nvalue = [24, 439]"] ;
102 -> 103 ;
104 [label="gini = 0.0915\nsamples = 458\nvalue = [22, 436]"] ;
103 -> 104 ;
105 [label="gini = 0.48\nsamples = 5\nvalue = [2, 3]"] ;
103 -> 105 ;
106 [label="X[3] <= 3.0\ngini = 0.5\nsamples = 4\nvalue = [2, 2]"] ;
102 -> 106 ;
107 [label="gini = 0.0\nsamples = 2\nvalue = [0, 2]"] ;
106 -> 107 ;
108 [label="gini = 0.0\nsamples = 2\nvalue = [2, 0]"] ;
106 -> 108 ;
109 [label="X[19] <= 6.5\ngini = 0.2179\nsamples = 233\nvalue = [29, 204]"] ;
101 -> 109 ;
110 [label="X[18] <= 0.5\ngini = 0.4592\nsamples = 28\nvalue = [10, 18]"] ;
109 -> 110 ;
111 [label="gini = 0.4898\nsamples = 14\nvalue = [8, 6]"] ;
110 -> 111 ;
112 [label="gini = 0.2449\nsamples = 14\nvalue = [2, 12]"] ;
110 -> 112 ;
113 [label="X[4] <= 29.5\ngini = 0.1682\nsamples = 205\nvalue = [19, 186]"] ;
109 -> 113 ;
114 [label="gini = 0.0\nsamples = 1\nvalue = [1, 0]"] ;
113 -> 114 ;
115 [label="gini = 0.1609\nsamples = 204\nvalue = [18, 186]"] ;
113 -> 115 ;
116 [label="gini = 0.0\nsamples = 1\nvalue = [1, 0]"] ;
100 -> 116 ;
}