digraph Tree {
node [shape=box] ;
0 [label="X[14] <= 0.5\ngini = 0.2705\nsamples = 1470\nvalue = [237, 1233]"] ;
1 [label="X[12] <= 2475.0\ngini = 0.4242\nsamples = 416\nvalue = [127, 289]"] ;
0 -> 1 [labeldistance=2.5, labelangle=45, headlabel="True"] ;
2 [label="X[23] <= 2.5\ngini = 0.4234\nsamples = 69\nvalue = [48, 21]"] ;
1 -> 2 ;
3 [label="X[4] <= 1956.5\ngini = 0.3289\nsamples = 53\nvalue = [42, 11]"] ;
2 -> 3 ;
4 [label="X[8] <= 3.5\ngini = 0.2907\nsamples = 51\nvalue = [42, 9]"] ;
3 -> 4 ;
5 [label="X[2] <= 2.5\ngini = 0.2268\nsamples = 46\nvalue = [40, 6]"] ;
4 -> 5 ;
6 [label="X[16] <= 3.5\ngini = 0.4444\nsamples = 12\nvalue = [8, 4]"] ;
5 -> 6 ;
7 [label="X[22] <= 3.5\ngini = 0.32\nsamples = 10\nvalue = [8, 2]"] ;
6 -> 7 ;
8 [label="X[20] <= 4.5\ngini = 0.1975\nsamples = 9\nvalue = [8, 1]"] ;
7 -> 8 ;
9 [label="gini = 0.0\nsamples = 8\nvalue = [8, 0]"] ;
8 -> 9 ;
10 [label="gini = 0.0\nsamples = 1\nvalue = [0, 1]"] ;
8 -> 10 ;
11 [label="gini = 0.0\nsamples = 1\nvalue = [0, 1]"] ;
7 -> 11 ;
12 [label="gini = 0.0\nsamples = 2\nvalue = [0, 2]"] ;
6 -> 12 ;
13 [label="X[11] <= 0.5\ngini = 0.1107\nsamples = 34\nvalue = [32, 2]"] ;
5 -> 13 ;
14 [label="gini = 0.0\nsamples = 23\nvalue = [23, 0]"] ;
13 -> 14 ;
15 [label="X[4] <= 667.5\ngini = 0.2975\nsamples = 11\nvalue = [9, 2]"] ;
13 -> 15 ;
16 [label="gini = 0.0\nsamples = 1\nvalue = [0, 1]"] ;
15 -> 16 ;
17 [label="X[7] <= 86.0\ngini = 0.18\nsamples = 10\nvalue = [9, 1]"] ;
15 -> 17 ;
18 [label="gini = 0.0\nsamples = 9\nvalue = [9, 0]"] ;
17 -> 18 ;
19 [label="gini = 0.0\nsamples = 1\nvalue = [0, 1]"] ;
17 -> 19 ;
20 [label="X[23] <= 1.5\ngini = 0.48\nsamples = 5\nvalue = [2, 3]"] ;
4 -> 20 ;
21 [label="X[13] <= 4.5\ngini = 0.4444\nsamples = 3\nvalue = [2, 1]"] ;
20 -> 21 ;
22 [label="gini = 0.0\nsamples = 2\nvalue = [2, 0]"] ;
21 -> 22 ;
23 [label="gini = 0.0\nsamples = 1\nvalue = [0, 1]"] ;
21 -> 23 ;
24 [label="gini = 0.0\nsamples = 2\nvalue = [0, 2]"] ;
20 -> 24 ;
25 [label="gini = 0.0\nsamples = 2\nvalue = [0, 2]"] ;
3 -> 25 ;
26 [label="X[7] <= 57.5\ngini = 0.4688\nsamples = 16\nvalue = [6, 10]"] ;
2 -> 26 ;
27 [label="gini = 0.0\nsamples = 8\nvalue = [0, 8]"] ;
26 -> 27 ;
28 [label="X[15] <= 15.0\ngini = 0.375\nsamples = 8\nvalue = [6, 2]"] ;
26 -> 28 ;
29 [label="gini = 0.0\nsamples = 6\nvalue = [6, 0]"] ;
28 -> 29 ;
30 [label="gini = 0.0\nsamples = 2\nvalue = [0, 2]"] ;
28 -> 30 ;
31 [label="X[18] <= 0.5\ngini = 0.3517\nsamples = 347\nvalue = [79, 268]"] ;
1 -> 31 ;
32 [label="X[27] <= 0.5\ngini = 0.4614\nsamples = 144\nvalue = [52, 92]"] ;
31 -> 32 ;
33 [label="X[12] <= 4012.0\ngini = 0.3829\nsamples = 93\nvalue = [24, 69]"] ;
32 -> 33 ;
34 [label="X[38] <= 0.5\ngini = 0.4946\nsamples = 29\nvalue = [16, 13]"] ;
33 -> 34 ;
35 [label="gini = 0.0\nsamples = 8\nvalue = [8, 0]"] ;
34 -> 35 ;
36 [label="X[25] <= 3.5\ngini = 0.4717\nsamples = 21\nvalue = [8, 13]"] ;
34 -> 36 ;
37 [label="X[30] <= 0.5\ngini = 0.3599\nsamples = 17\nvalue = [4, 13]"] ;
36 -> 37 ;
38 [label="X[20] <= 3.5\ngini = 0.142\nsamples = 13\nvalue = [1, 12]"] ;
37 -> 38 ;
39 [label="gini = 0.0\nsamples = 11\nvalue = [0, 11]"] ;
38 -> 39 ;
40 [label="X[23] <= 3.0\ngini = 0.5\nsamples = 2\nvalue = [1, 1]"] ;
38 -> 40 ;
41 [label="gini = 0.0\nsamples = 1\nvalue = [0, 1]"] ;
40 -> 41 ;
42 [label="gini = 0.0\nsamples = 1\nvalue = [1, 0]"] ;
40 -> 42 ;
43 [label="X[7] <= 46.0\ngini = 0.375\nsamples = 4\nvalue = [3, 1]"] ;
37 -> 43 ;
44 [label="gini = 0.0\nsamples = 1\nvalue = [0, 1]"] ;
43 -> 44 ;
45 [label="gini = 0.0\nsamples = 3\nvalue = [3, 0]"] ;
43 -> 45 ;
46 [label="gini = 0.0\nsamples = 4\nvalue = [4, 0]"] ;
36 -> 46 ;
47 [label="X[13] <= 6.5\ngini = 0.2188\nsamples = 64\nvalue = [8, 56]"] ;
33 -> 47 ;
48 [label="X[20] <= 1.5\ngini = 0.1049\nsamples = 54\nvalue = [3, 51]"] ;
47 -> 48 ;
49 [label="X[19] <= 9.5\ngini = 0.48\nsamples = 5\nvalue = [2, 3]"] ;
48 -> 49 ;
50 [label="gini = 0.0\nsamples = 2\nvalue = [2, 0]"] ;
49 -> 50 ;
51 [label="gini = 0.0\nsamples = 3\nvalue = [0, 3]"] ;
49 -> 51 ;
52 [label="X[15] <= 22.5\ngini = 0.04\nsamples = 49\nvalue = [1, 48]"] ;
48 -> 52 ;
53 [label="gini = 0.0\nsamples = 47\nvalue = [0, 47]"] ;
52 -> 53 ;
54 [label="X[30] <= 0.5\ngini = 0.5\nsamples = 2\nvalue = [1, 1]"] ;
52 -> 54 ;
55 [label="gini = 0.0\nsamples = 1\nvalue = [1, 0]"] ;
54 -> 55 ;
56 [label="gini = 0.0\nsamples = 1\nvalue = [0, 1]"] ;
54 -> 56 ;
57 [label="X[11] <= 0.5\ngini = 0.5\nsamples = 10\nvalue = [5, 5]"] ;
47 -> 57 ;
58 [label="X[19] <= 22.5\ngini = 0.4082\nsamples = 7\nvalue = [2, 5]"] ;
57 -> 58 ;
59 [label="gini = 0.0\nsamples = 4\nvalue = [0, 4]"] ;
58 -> 59 ;
60 [label="X[28] <= 0.5\ngini = 0.4444\nsamples = 3\nvalue = [2, 1]"] ;
58 -> 60 ;
61 [label="gini = 0.0\nsamples = 1\nvalue = [0, 1]"] ;
60 -> 61 ;
62 [label="gini = 0.0\nsamples = 2\nvalue = [2, 0]"] ;
60 -> 62 ;
63 [label="gini = 0.0\nsamples = 3\nvalue = [3, 0]"] ;
57 -> 63 ;
64 [label="X[2] <= 11.0\ngini = 0.4952\nsamples = 51\nvalue = [28, 23]"] ;
32 -> 64 ;
65 [label="X[10] <= 3.5\ngini = 0.4844\nsamples = 34\nvalue = [14, 20]"] ;
64 -> 65 ;
66 [label="X[17] <= 3.5\ngini = 0.48\nsamples = 20\nvalue = [12, 8]"] ;
65 -> 66 ;
67 [label="X[15] <= 11.5\ngini = 0.2778\nsamples = 12\nvalue = [10, 2]"] ;
66 -> 67 ;
68 [label="gini = 0.0\nsamples = 1\nvalue = [0, 1]"] ;
67 -> 68 ;
69 [label="X[16] <= 3.5\ngini = 0.1653\nsamples = 11\nvalue = [10, 1]"] ;
67 -> 69 ;
70 [label="gini = 0.0\nsamples = 9\nvalue = [9, 0]"] ;
69 -> 70 ;
71 [label="X[7] <= 83.5\ngini = 0.5\nsamples = 2\nvalue = [1, 1]"] ;
69 -> 71 ;
72 [label="gini = 0.0\nsamples = 1\nvalue = [0, 1]"] ;
71 -> 72 ;
73 [label="gini = 0.0\nsamples = 1\nvalue = [1, 0]"] ;
71 -> 73 ;
74 [label="X[20] <= 1.5\ngini = 0.375\nsamples = 8\nvalue = [2, 6]"] ;
66 -> 74 ;
75 [label="gini = 0.0\nsamples = 1\nvalue = [1, 0]"] ;
74 -> 75 ;
76 [label="X[20] <= 3.5\ngini = 0.2449\nsamples = 7\nvalue = [1, 6]"] ;
74 -> 76 ;
77 [label="gini = 0.0\nsamples = 6\nvalue = [0, 6]"] ;
76 -> 77 ;
78 [label="gini = 0.0\nsamples = 1\nvalue = [1, 0]"] ;
76 -> 78 ;
79 [label="X[20] <= 0.5\ngini = 0.2449\nsamples = 14\nvalue = [2, 12]"] ;
65 -> 79 ;
80 [label="X[19] <= 8.5\ngini = 0.4444\nsamples = 3\nvalue = [2, 1]"] ;
79 -> 80 ;
81 [label="gini = 0.0\nsamples = 2\nvalue = [2, 0]"] ;
80 -> 81 ;
82 [label="gini = 0.0\nsamples = 1\nvalue = [0, 1]"] ;
80 -> 82 ;
83 [label="gini = 0.0\nsamples = 11\nvalue = [0, 11]"] ;
79 -> 83 ;
84 [label="X[21] <= 1.5\ngini = 0.2907\nsamples = 17\nvalue = [14, 3]"] ;
64 -> 84 ;
85 [label="gini = 0.0\nsamples = 1\nvalue = [0, 1]"] ;
84 -> 85 ;
86 [label="X[7] <= 34.0\ngini = 0.2188\nsamples = 16\nvalue = [14, 2]"] ;
84 -> 86 ;
87 [label="gini = 0.0\nsamples = 1\nvalue = [0, 1]"] ;
86 -> 87 ;
88 [label="X[19] <= 18.5\ngini = 0.1244\nsamples = 15\nvalue = [14, 1]"] ;
86 -> 88 ;
89 [label="gini = 0.0\nsamples = 11\nvalue = [11, 0]"] ;
88 -> 89 ;
90 [label="X[3] <= 2.5\ngini = 0.375\nsamples = 4\nvalue = [3, 1]"] ;
88 -> 90 ;
91 [label="gini = 0.0\nsamples = 1\nvalue = [0, 1]"] ;
90 -> 91 ;
92 [label="gini = 0.0\nsamples = 3\nvalue = [3, 0]"] ;
90 -> 92 ;
93 [label="X[9] <= 1.5\ngini = 0.2306\nsamples = 203\nvalue = [27, 176]"] ;
31 -> 93 ;
94 [label="X[23] <= 6.5\ngini = 0.3935\nsamples = 52\nvalue = [14, 38]"] ;
93 -> 94 ;
95 [label="X[21] <= 1.5\ngini = 0.3254\nsamples = 44\nvalue = [9, 35]"] ;
94 -> 95 ;
96 [label="X[38] <= 0.5\ngini = 0.48\nsamples = 5\nvalue = [3, 2]"] ;
95 -> 96 ;
97 [label="gini = 0.0\nsamples = 3\nvalue = [3, 0]"] ;
96 -> 97 ;
98 [label="gini = 0.0\nsamples = 2\nvalue = [0, 2]"] ;
96 -> 98 ;
99 [label="X[12] <= 4776.5\ngini = 0.2604\nsamples = 39\nvalue = [6, 33]"] ;
95 -> 99 ;
100 [label="X[22] <= 0.5\ngini = 0.1975\nsamples = 36\nvalue = [4, 32]"] ;
99 -> 100 ;
101 [label="gini = 0.0\nsamples = 1\nvalue = [1, 0]"] ;
100 -> 101 ;
102 [label="X[20] <= 1.0\ngini = 0.1567\nsamples = 35\nvalue = [3, 32]"] ;
100 -> 102 ;
103 [label="X[3] <= 2.0\ngini = 0.5\nsamples = 2\nvalue = [1, 1]"] ;
102 -> 103 ;
104 [label="gini = 0.0\nsamples = 1\nvalue = [0, 1]"] ;
103 -> 104 ;
105 [label="gini = 0.0\nsamples = 1\nvalue = [1, 0]"] ;
103 -> 105 ;
106 [label="X[40] <= 0.5\ngini = 0.1139\nsamples = 33\nvalue = [2, 31]"] ;
102 -> 106 ;
107 [label="X[0] <= 1.0\ngini = 0.0624\nsamples = 31\nvalue = [1, 30]"] ;
106 -> 107 ;
108 [label="X[20] <= 3.5\ngini = 0.4444\nsamples = 3\nvalue = [1, 2]"] ;
107 -> 108 ;
109 [label="gini = 0.0\nsamples = 2\nvalue = [0, 2]"] ;
108 -> 109 ;
110 [label="gini = 0.0\nsamples = 1\nvalue = [1, 0]"] ;
108 -> 110 ;
111 [label="gini = 0.0\nsamples = 28\nvalue = [0, 28]"] ;
107 -> 111 ;
112 [label="X[4] <= 781.0\ngini = 0.5\nsamples = 2\nvalue = [1, 1]"] ;
106 -> 112 ;
113 [label="gini = 0.0\nsamples = 1\nvalue = [0, 1]"] ;
112 -> 113 ;
114 [label="gini = 0.0\nsamples = 1\nvalue = [1, 0]"] ;
112 -> 114 ;
115 [label="X[5] <= 2.5\ngini = 0.4444\nsamples = 3\nvalue = [2, 1]"] ;
99 -> 115 ;
116 [label="gini = 0.0\nsamples = 2\nvalue = [2, 0]"] ;
115 -> 116 ;
117 [label="gini = 0.0\nsamples = 1\nvalue = [0, 1]"] ;
115 -> 117 ;
118 [label="X[6] <= 0.5\ngini = 0.4688\nsamples = 8\nvalue = [5, 3]"] ;
94 -> 118 ;
119 [label="X[22] <= 7.5\ngini = 0.375\nsamples = 4\nvalue = [1, 3]"] ;
118 -> 119 ;
120 [label="gini = 0.0\nsamples = 1\nvalue = [1, 0]"] ;
119 -> 120 ;
121 [label="gini = 0.0\nsamples = 3\nvalue = [0, 3]"] ;
119 -> 121 ;
122 [label="gini = 0.0\nsamples = 4\nvalue = [4, 0]"] ;
118 -> 122 ;
123 [label="X[12] <= 19853.0\ngini = 0.1574\nsamples = 151\nvalue = [13, 138]"] ;
93 -> 123 ;
124 [label="X[22] <= 4.5\ngini = 0.1472\nsamples = 150\nvalue = [12, 138]"] ;
123 -> 124 ;
125 [label="X[24] <= 1.5\ngini = 0.3389\nsamples = 37\nvalue = [8, 29]"] ;
124 -> 125 ;
126 [label="X[0] <= 1.0\ngini = 0.1855\nsamples = 29\nvalue = [3, 26]"] ;
125 -> 126 ;
127 [label="gini = 0.0\nsamples = 1\nvalue = [1, 0]"] ;
126 -> 127 ;
128 [label="X[32] <= 0.5\ngini = 0.1327\nsamples = 28\nvalue = [2, 26]"] ;
126 -> 128 ;
129 [label="X[13] <= 8.5\ngini = 0.074\nsamples = 26\nvalue = [1, 25]"] ;
128 -> 129 ;
130 [label="gini = 0.0\nsamples = 23\nvalue = [0, 23]"] ;
129 -> 130 ;
131 [label="X[4] <= 708.5\ngini = 0.4444\nsamples = 3\nvalue = [1, 2]"] ;
129 -> 131 ;
132 [label="gini = 0.0\nsamples = 1\nvalue = [1, 0]"] ;
131 -> 132 ;
133 [label="gini = 0.0\nsamples = 2\nvalue = [0, 2]"] ;
131 -> 133 ;
134 [label="X[23] <= 2.0\ngini = 0.5\nsamples = 2\nvalue = [1, 1]"] ;
128 -> 134 ;
135 [label="gini = 0.0\nsamples = 1\nvalue = [0, 1]"] ;
134 -> 135 ;
136 [label="gini = 0.0\nsamples = 1\nvalue = [1, 0]"] ;
134 -> 136 ;
137 [label="X[27] <= 0.5\ngini = 0.4688\nsamples = 8\nvalue = [5, 3]"] ;
125 -> 137 ;
138 [label="gini = 0.0\nsamples = 2\nvalue = [0, 2]"] ;
137 -> 138 ;
139 [label="X[21] <= 3.5\ngini = 0.2778\nsamples = 6\nvalue = [5, 1]"] ;
137 -> 139 ;
140 [label="gini = 0.0\nsamples = 5\nvalue = [5, 0]"] ;
139 -> 140 ;
141 [label="gini = 0.0\nsamples = 1\nvalue = [0, 1]"] ;
139 -> 141 ;
142 [label="X[2] <= 28.5\ngini = 0.0683\nsamples = 113\nvalue = [4, 109]"] ;
124 -> 142 ;
143 [label="X[20] <= 5.5\ngini = 0.0521\nsamples = 112\nvalue = [3, 109]"] ;
142 -> 143 ;
144 [label="X[7] <= 97.0\ngini = 0.0185\nsamples = 107\nvalue = [1, 106]"] ;
143 -> 144 ;
145 [label="gini = 0.0\nsamples = 105\nvalue = [0, 105]"] ;
144 -> 145 ;
146 [label="X[22] <= 8.5\ngini = 0.5\nsamples = 2\nvalue = [1, 1]"] ;
144 -> 146 ;
147 [label="gini = 0.0\nsamples = 1\nvalue = [0, 1]"] ;
146 -> 147 ;
148 [label="gini = 0.0\nsamples = 1\nvalue = [1, 0]"] ;
146 -> 148 ;
149 [label="X[4] <= 1105.0\ngini = 0.48\nsamples = 5\nvalue = [2, 3]"] ;
143 -> 149 ;
150 [label="gini = 0.0\nsamples = 2\nvalue = [2, 0]"] ;
149 -> 150 ;
151 [label="gini = 0.0\nsamples = 3\nvalue = [0, 3]"] ;
149 -> 151 ;
152 [label="gini = 0.0\nsamples = 1\nvalue = [1, 0]"] ;
142 -> 152 ;
153 [label="gini = 0.0\nsamples = 1\nvalue = [1, 0]"] ;
123 -> 153 ;
154 [label="X[19] <= 2.5\ngini = 0.1869\nsamples = 1054\nvalue = [110, 944]"] ;
0 -> 154 [labeldistance=2.5, labelangle=-45, headlabel="False"] ;
155 [label="X[38] <= 0.5\ngini = 0.4419\nsamples = 88\nvalue = [29, 59]"] ;
154 -> 155 ;
156 [label="X[7] <= 58.5\ngini = 0.495\nsamples = 60\nvalue = [27, 33]"] ;
155 -> 156 ;
157 [label="X[5] <= 2.5\ngini = 0.4352\nsamples = 25\nvalue = [17, 8]"] ;
156 -> 157 ;
158 [label="gini = 0.0\nsamples = 11\nvalue = [11, 0]"] ;
157 -> 158 ;
159 [label="X[12] <= 2156.5\ngini = 0.4898\nsamples = 14\nvalue = [6, 8]"] ;
157 -> 159 ;
160 [label="X[18] <= 1.5\ngini = 0.2449\nsamples = 7\nvalue = [6, 1]"] ;
159 -> 160 ;
161 [label="gini = 0.0\nsamples = 6\nvalue = [6, 0]"] ;
160 -> 161 ;
162 [label="gini = 0.0\nsamples = 1\nvalue = [0, 1]"] ;
160 -> 162 ;
163 [label="gini = 0.0\nsamples = 7\nvalue = [0, 7]"] ;
159 -> 163 ;
164 [label="X[3] <= 3.5\ngini = 0.4082\nsamples = 35\nvalue = [10, 25]"] ;
156 -> 164 ;
165 [label="X[20] <= 1.0\ngini = 0.3418\nsamples = 32\nvalue = [7, 25]"] ;
164 -> 165 ;
166 [label="gini = 0.0\nsamples = 2\nvalue = [2, 0]"] ;
165 -> 166 ;
167 [label="X[10] <= 1.5\ngini = 0.2778\nsamples = 30\nvalue = [5, 25]"] ;
165 -> 167 ;
168 [label="X[15] <= 15.5\ngini = 0.4444\nsamples = 3\nvalue = [2, 1]"] ;
167 -> 168 ;
169 [label="gini = 0.0\nsamples = 1\nvalue = [0, 1]"] ;
168 -> 169 ;
170 [label="gini = 0.0\nsamples = 2\nvalue = [2, 0]"] ;
168 -> 170 ;
171 [label="X[21] <= 2.5\ngini = 0.1975\nsamples = 27\nvalue = [3, 24]"] ;
167 -> 171 ;
172 [label="X[2] <= 8.0\ngini = 0.4898\nsamples = 7\nvalue = [3, 4]"] ;
171 -> 172 ;
173 [label="gini = 0.0\nsamples = 4\nvalue = [0, 4]"] ;
172 -> 173 ;
174 [label="gini = 0.0\nsamples = 3\nvalue = [3, 0]"] ;
172 -> 174 ;
175 [label="gini = 0.0\nsamples = 20\nvalue = [0, 20]"] ;
171 -> 175 ;
176 [label="gini = 0.0\nsamples = 3\nvalue = [3, 0]"] ;
164 -> 176 ;
177 [label="X[31] <= 0.5\ngini = 0.1327\nsamples = 28\nvalue = [2, 26]"] ;
155 -> 177 ;
178 [label="X[7] <= 34.5\ngini = 0.0713\nsamples = 27\nvalue = [1, 26]"] ;
177 -> 178 ;
179 [label="X[4] <= 1636.0\ngini = 0.5\nsamples = 2\nvalue = [1, 1]"] ;
178 -> 179 ;
180 [label="gini = 0.0\nsamples = 1\nvalue = [1, 0]"] ;
179 -> 180 ;
181 [label="gini = 0.0\nsamples = 1\nvalue = [0, 1]"] ;
179 -> 181 ;
182 [label="gini = 0.0\nsamples = 25\nvalue = [0, 25]"] ;
178 -> 182 ;
183 [label="gini = 0.0\nsamples = 1\nvalue = [1, 0]"] ;
177 -> 183 ;
184 [label="X[21] <= 1.5\ngini = 0.1536\nsamples = 966\nvalue = [81, 885]"] ;
154 -> 184 ;
185 [label="X[25] <= 0.5\ngini = 0.3702\nsamples = 53\nvalue = [13, 40]"] ;
184 -> 185 ;
186 [label="X[12] <= 4877.5\ngini = 0.4082\nsamples = 7\nvalue = [5, 2]"] ;
185 -> 186 ;
187 [label="gini = 0.0\nsamples = 4\nvalue = [4, 0]"] ;
186 -> 187 ;
188 [label="X[7] <= 69.0\ngini = 0.4444\nsamples = 3\nvalue = [1, 2]"] ;
186 -> 188 ;
189 [label="gini = 0.0\nsamples = 1\nvalue = [1, 0]"] ;
188 -> 189 ;
190 [label="gini = 0.0\nsamples = 2\nvalue = [0, 2]"] ;
188 -> 190 ;
191 [label="X[24] <= 6.0\ngini = 0.2873\nsamples = 46\nvalue = [8, 38]"] ;
185 -> 191 ;
192 [label="X[10] <= 1.5\ngini = 0.18\nsamples = 40\nvalue = [4, 36]"] ;
191 -> 192 ;
193 [label="X[19] <= 11.5\ngini = 0.4444\nsamples = 12\nvalue = [4, 8]"] ;
192 -> 193 ;
194 [label="X[22] <= 8.0\ngini = 0.5\nsamples = 8\nvalue = [4, 4]"] ;
193 -> 194 ;
195 [label="X[23] <= 1.5\ngini = 0.32\nsamples = 5\nvalue = [1, 4]"] ;
194 -> 195 ;
196 [label="gini = 0.0\nsamples = 1\nvalue = [1, 0]"] ;
195 -> 196 ;
197 [label="gini = 0.0\nsamples = 4\nvalue = [0, 4]"] ;
195 -> 197 ;
198 [label="gini = 0.0\nsamples = 3\nvalue = [3, 0]"] ;
194 -> 198 ;
199 [label="gini = 0.0\nsamples = 4\nvalue = [0, 4]"] ;
193 -> 199 ;
200 [label="gini = 0.0\nsamples = 28\nvalue = [0, 28]"] ;
192 -> 200 ;
201 [label="X[10] <= 2.5\ngini = 0.4444\nsamples = 6\nvalue = [4, 2]"] ;
191 -> 201 ;
202 [label="gini = 0.0\nsamples = 2\nvalue = [0, 2]"] ;
201 -> 202 ;
203 [label="gini = 0.0\nsamples = 4\nvalue = [4, 0]"] ;
201 -> 203 ;
204 [label="X[22] <= 38.5\ngini = 0.1379\nsamples = 913\nvalue = [68, 845]"] ;
184 -> 204 ;
205 [label="X[13] <= 4.5\ngini = 0.1361\nsamples = 912\nvalue = [67, 845]"] ;
204 -> 205 ;
206 [label="X[24] <= 14.5\ngini = 0.1075\nsamples = 702\nvalue = [40, 662]"] ;
205 -> 206 ;
207 [label="X[40] <= 0.5\ngini = 0.1031\nsamples = 697\nvalue = [38, 659]"] ;
206 -> 207 ;
208 [label="X[22] <= 31.5\ngini = 0.0939\nsamples = 668\nvalue = [33, 635]"] ;
207 -> 208 ;
209 [label="X[17] <= 1.5\ngini = 0.0894\nsamples = 661\nvalue = [31, 630]"] ;
208 -> 209 ;
210 [label="X[22] <= 1.5\ngini = 0.1729\nsamples = 136\nvalue = [13, 123]"] ;
209 -> 210 ;
211 [label="X[12] <= 6627.0\ngini = 0.42\nsamples = 10\nvalue = [3, 7]"] ;
210 -> 211 ;
212 [label="X[32] <= 0.5\ngini = 0.2188\nsamples = 8\nvalue = [1, 7]"] ;
211 -> 212 ;
213 [label="gini = 0.0\nsamples = 7\nvalue = [0, 7]"] ;
212 -> 213 ;
214 [label="gini = 0.0\nsamples = 1\nvalue = [1, 0]"] ;
212 -> 214 ;
215 [label="gini = 0.0\nsamples = 2\nvalue = [2, 0]"] ;
211 -> 215 ;
216 [label="X[10] <= 2.5\ngini = 0.1461\nsamples = 126\nvalue = [10, 116]"] ;
210 -> 216 ;
217 [label="X[18] <= 0.5\ngini = 0.2778\nsamples = 42\nvalue = [7, 35]"] ;
216 -> 217 ;
218 [label="X[26] <= 0.5\ngini = 0.497\nsamples = 13\nvalue = [6, 7]"] ;
217 -> 218 ;
219 [label="gini = 0.0\nsamples = 5\nvalue = [0, 5]"] ;
218 -> 219 ;
220 [label="X[5] <= 3.5\ngini = 0.375\nsamples = 8\nvalue = [6, 2]"] ;
218 -> 220 ;
221 [label="gini = 0.0\nsamples = 6\nvalue = [6, 0]"] ;
220 -> 221 ;
222 [label="gini = 0.0\nsamples = 2\nvalue = [0, 2]"] ;
220 -> 222 ;
223 [label="X[36] <= 0.5\ngini = 0.0666\nsamples = 29\nvalue = [1, 28]"] ;
217 -> 223 ;
224 [label="gini = 0.0\nsamples = 27\nvalue = [0, 27]"] ;
223 -> 224 ;
225 [label="X[31] <= 0.5\ngini = 0.5\nsamples = 2\nvalue = [1, 1]"] ;
223 -> 225 ;
226 [label="gini = 0.0\nsamples = 1\nvalue = [1, 0]"] ;
225 -> 226 ;
227 [label="gini = 0.0\nsamples = 1\nvalue = [0, 1]"] ;
225 -> 227 ;
228 [label="X[21] <= 3.5\ngini = 0.0689\nsamples = 84\nvalue = [3, 81]"] ;
216 -> 228 ;
229 [label="X[25] <= 1.5\ngini = 0.0267\nsamples = 74\nvalue = [1, 73]"] ;
228 -> 229 ;
230 [label="X[5] <= 3.5\ngini = 0.2188\nsamples = 8\nvalue = [1, 7]"] ;
229 -> 230 ;
231 [label="gini = 0.0\nsamples = 6\nvalue = [0, 6]"] ;
230 -> 231 ;
232 [label="X[16] <= 3.5\ngini = 0.5\nsamples = 2\nvalue = [1, 1]"] ;
230 -> 232 ;
233 [label="gini = 0.0\nsamples = 1\nvalue = [1, 0]"] ;
232 -> 233 ;
234 [label="gini = 0.0\nsamples = 1\nvalue = [0, 1]"] ;
232 -> 234 ;
235 [label="gini = 0.0\nsamples = 66\nvalue = [0, 66]"] ;
229 -> 235 ;
236 [label="X[39] <= 0.5\ngini = 0.32\nsamples = 10\nvalue = [2, 8]"] ;
228 -> 236 ;
237 [label="gini = 0.0\nsamples = 7\nvalue = [0, 7]"] ;
236 -> 237 ;
238 [label="X[7] <= 72.0\ngini = 0.4444\nsamples = 3\nvalue = [2, 1]"] ;
236 -> 238 ;
239 [label="gini = 0.0\nsamples = 2\nvalue = [2, 0]"] ;
238 -> 239 ;
240 [label="gini = 0.0\nsamples = 1\nvalue = [0, 1]"] ;
238 -> 240 ;
241 [label="X[2] <= 28.5\ngini = 0.0662\nsamples = 525\nvalue = [18, 507]"] ;
209 -> 241 ;
242 [label="X[4] <= 301.5\ngini = 0.0603\nsamples = 514\nvalue = [16, 498]"] ;
241 -> 242 ;
243 [label="X[4] <= 276.5\ngini = 0.1372\nsamples = 81\nvalue = [6, 75]"] ;
242 -> 243 ;
244 [label="X[8] <= 1.5\ngini = 0.0758\nsamples = 76\nvalue = [3, 73]"] ;
243 -> 244 ;
245 [label="X[25] <= 5.0\ngini = 0.4444\nsamples = 3\nvalue = [1, 2]"] ;
244 -> 245 ;
246 [label="gini = 0.0\nsamples = 1\nvalue = [1, 0]"] ;
245 -> 246 ;
247 [label="gini = 0.0\nsamples = 2\nvalue = [0, 2]"] ;
245 -> 247 ;
248 [label="X[3] <= 2.5\ngini = 0.0533\nsamples = 73\nvalue = [2, 71]"] ;
244 -> 248 ;
249 [label="X[10] <= 1.5\ngini = 0.1653\nsamples = 22\nvalue = [2, 20]"] ;
248 -> 249 ;
250 [label="X[19] <= 6.5\ngini = 0.5\nsamples = 2\nvalue = [1, 1]"] ;
249 -> 250 ;
251 [label="gini = 0.0\nsamples = 1\nvalue = [0, 1]"] ;
250 -> 251 ;
252 [label="gini = 0.0\nsamples = 1\nvalue = [1, 0]"] ;
250 -> 252 ;
253 [label="X[27] <= 0.5\ngini = 0.095\nsamples = 20\nvalue = [1, 19]"] ;
249 -> 253 ;
254 [label="gini = 0.0\nsamples = 17\nvalue = [0, 17]"] ;
253 -> 254 ;
255 [label="X[11] <= 0.5\ngini = 0.4444\nsamples = 3\nvalue = [1, 2]"] ;
253 -> 255 ;
256 [label="gini = 0.0\nsamples = 1\nvalue = [1, 0]"] ;
255 -> 256 ;
257 [label="gini = 0.0\nsamples = 2\nvalue = [0, 2]"] ;
255 -> 257 ;
258 [label="gini = 0.0\nsamples = 51\nvalue = [0, 51]"] ;
248 -> 258 ;
259 [label="X[21] <= 2.5\ngini = 0.48\nsamples = 5\nvalue = [3, 2]"] ;
243 -> 259 ;
260 [label="gini = 0.0\nsamples = 3\nvalue = [3, 0]"] ;
259 -> 260 ;
261 [label="gini = 0.0\nsamples = 2\nvalue = [0, 2]"] ;
259 -> 261 ;
262 [label="X[7] <= 99.5\ngini = 0.0451\nsamples = 433\nvalue = [10, 423]"] ;
242 -> 262 ;
263 [label="X[13] <= 3.5\ngini = 0.0412\nsamples = 428\nvalue = [9, 419]"] ;
262 -> 263 ;
264 [label="X[5] <= 1.5\ngini = 0.0269\nsamples = 366\nvalue = [5, 361]"] ;
263 -> 264 ;
265 [label="X[2] <= 13.5\ngini = 0.0749\nsamples = 77\nvalue = [3, 74]"] ;
264 -> 265 ;
266 [label="X[29] <= 0.5\ngini = 0.0328\nsamples = 60\nvalue = [1, 59]"] ;
265 -> 266 ;
267 [label="gini = 0.0\nsamples = 55\nvalue = [0, 55]"] ;
266 -> 267 ;
268 [label="X[15] <= 17.0\ngini = 0.32\nsamples = 5\nvalue = [1, 4]"] ;
266 -> 268 ;
269 [label="gini = 0.0\nsamples = 4\nvalue = [0, 4]"] ;
268 -> 269 ;
270 [label="gini = 0.0\nsamples = 1\nvalue = [1, 0]"] ;
268 -> 270 ;
271 [label="X[10] <= 3.5\ngini = 0.2076\nsamples = 17\nvalue = [2, 15]"] ;
265 -> 271 ;
272 [label="gini = 0.0\nsamples = 13\nvalue = [0, 13]"] ;
271 -> 272 ;
273 [label="X[4] <= 1033.5\ngini = 0.5\nsamples = 4\nvalue = [2, 2]"] ;
271 -> 273 ;
274 [label="gini = 0.0\nsamples = 2\nvalue = [0, 2]"] ;
273 -> 274 ;
275 [label="gini = 0.0\nsamples = 2\nvalue = [2, 0]"] ;
273 -> 275 ;
276 [label="X[10] <= 1.5\ngini = 0.0137\nsamples = 289\nvalue = [2, 287]"] ;
264 -> 276 ;
277 [label="X[15] <= 21.5\ngini = 0.0624\nsamples = 62\nvalue = [2, 60]"] ;
276 -> 277 ;
278 [label="X[15] <= 11.5\ngini = 0.0333\nsamples = 59\nvalue = [1, 58]"] ;
277 -> 278 ;
279 [label="X[12] <= 9063.0\ngini = 0.2188\nsamples = 8\nvalue = [1, 7]"] ;
278 -> 279 ;
280 [label="gini = 0.0\nsamples = 7\nvalue = [0, 7]"] ;
279 -> 280 ;
281 [label="gini = 0.0\nsamples = 1\nvalue = [1, 0]"] ;
279 -> 281 ;
282 [label="gini = 0.0\nsamples = 51\nvalue = [0, 51]"] ;
278 -> 282 ;
283 [label="X[25] <= 3.0\ngini = 0.4444\nsamples = 3\nvalue = [1, 2]"] ;
277 -> 283 ;
284 [label="gini = 0.0\nsamples = 2\nvalue = [0, 2]"] ;
283 -> 284 ;
285 [label="gini = 0.0\nsamples = 1\nvalue = [1, 0]"] ;
283 -> 285 ;
286 [label="gini = 0.0\nsamples = 227\nvalue = [0, 227]"] ;
276 -> 286 ;
287 [label="X[3] <= 1.5\ngini = 0.1207\nsamples = 62\nvalue = [4, 58]"] ;
263 -> 287 ;
288 [label="X[7] <= 60.5\ngini = 0.5\nsamples = 2\nvalue = [1, 1]"] ;
287 -> 288 ;
289 [label="gini = 0.0\nsamples = 1\nvalue = [1, 0]"] ;
288 -> 289 ;
290 [label="gini = 0.0\nsamples = 1\nvalue = [0, 1]"] ;
288 -> 290 ;
291 [label="X[10] <= 1.5\ngini = 0.095\nsamples = 60\nvalue = [3, 57]"] ;
287 -> 291 ;
292 [label="X[34] <= 0.5\ngini = 0.3457\nsamples = 9\nvalue = [2, 7]"] ;
291 -> 292 ;
293 [label="gini = 0.0\nsamples = 6\nvalue = [0, 6]"] ;
292 -> 293 ;
294 [label="X[20] <= 4.5\ngini = 0.4444\nsamples = 3\nvalue = [2, 1]"] ;
292 -> 294 ;
295 [label="gini = 0.0\nsamples = 2\nvalue = [2, 0]"] ;
294 -> 295 ;
296 [label="gini = 0.0\nsamples = 1\nvalue = [0, 1]"] ;
294 -> 296 ;
297 [label="X[2] <= 20.5\ngini = 0.0384\nsamples = 51\nvalue = [1, 50]"] ;
291 -> 297 ;
298 [label="gini = 0.0\nsamples = 47\nvalue = [0, 47]"] ;
297 -> 298 ;
299 [label="X[33] <= 0.5\ngini = 0.375\nsamples = 4\nvalue = [1, 3]"] ;
297 -> 299 ;
300 [label="gini = 0.0\nsamples = 3\nvalue = [0, 3]"] ;
299 -> 300 ;
301 [label="gini = 0.0\nsamples = 1\nvalue = [1, 0]"] ;
299 -> 301 ;
302 [label="X[18] <= 1.5\ngini = 0.32\nsamples = 5\nvalue = [1, 4]"] ;
262 -> 302 ;
303 [label="gini = 0.0\nsamples = 4\nvalue = [0, 4]"] ;
302 -> 303 ;
304 [label="gini = 0.0\nsamples = 1\nvalue = [1, 0]"] ;
302 -> 304 ;
305 [label="X[30] <= 0.5\ngini = 0.2975\nsamples = 11\nvalue = [2, 9]"] ;
241 -> 305 ;
306 [label="gini = 0.0\nsamples = 8\nvalue = [0, 8]"] ;
305 -> 306 ;
307 [label="X[23] <= 3.0\ngini = 0.4444\nsamples = 3\nvalue = [2, 1]"] ;
305 -> 307 ;
308 [label="gini = 0.0\nsamples = 1\nvalue = [0, 1]"] ;
307 -> 308 ;
309 [label="gini = 0.0\nsamples = 2\nvalue = [2, 0]"] ;
307 -> 309 ;
310 [label="X[6] <= 0.5\ngini = 0.4082\nsamples = 7\nvalue = [2, 5]"] ;
208 -> 310 ;
311 [label="gini = 0.0\nsamples = 5\nvalue = [0, 5]"] ;
310 -> 311 ;
312 [label="gini = 0.0\nsamples = 2\nvalue = [2, 0]"] ;
310 -> 312 ;
313 [label="X[21] <= 3.5\ngini = 0.2854\nsamples = 29\nvalue = [5, 24]"] ;
207 -> 313 ;
314 [label="X[10] <= 1.5\ngini = 0.2041\nsamples = 26\nvalue = [3, 23]"] ;
313 -> 314 ;
315 [label="X[15] <= 12.5\ngini = 0.5\nsamples = 4\nvalue = [2, 2]"] ;
314 -> 315 ;
316 [label="gini = 0.0\nsamples = 2\nvalue = [2, 0]"] ;
315 -> 316 ;
317 [label="gini = 0.0\nsamples = 2\nvalue = [0, 2]"] ;
315 -> 317 ;
318 [label="X[7] <= 34.5\ngini = 0.0868\nsamples = 22\nvalue = [1, 21]"] ;
314 -> 318 ;
319 [label="X[31] <= 0.5\ngini = 0.5\nsamples = 2\nvalue = [1, 1]"] ;
318 -> 319 ;
320 [label="gini = 0.0\nsamples = 1\nvalue = [1, 0]"] ;
319 -> 320 ;
321 [label="gini = 0.0\nsamples = 1\nvalue = [0, 1]"] ;
319 -> 321 ;
322 [label="gini = 0.0\nsamples = 20\nvalue = [0, 20]"] ;
318 -> 322 ;
323 [label="X[28] <= 0.5\ngini = 0.4444\nsamples = 3\nvalue = [2, 1]"] ;
313 -> 323 ;
324 [label="gini = 0.0\nsamples = 2\nvalue = [2, 0]"] ;
323 -> 324 ;
325 [label="gini = 0.0\nsamples = 1\nvalue = [0, 1]"] ;
323 -> 325 ;
326 [label="X[20] <= 1.5\ngini = 0.48\nsamples = 5\nvalue = [2, 3]"] ;
206 -> 326 ;
327 [label="gini = 0.0\nsamples = 2\nvalue = [2, 0]"] ;
326 -> 327 ;
328 [label="gini = 0.0\nsamples = 3\nvalue = [0, 3]"] ;
326 -> 328 ;
329 [label="X[19] <= 6.5\ngini = 0.2241\nsamples = 210\nvalue = [27, 183]"] ;
205 -> 329 ;
330 [label="X[13] <= 6.5\ngini = 0.4377\nsamples = 34\nvalue = [11, 23]"] ;
329 -> 330 ;
331 [label="X[15] <= 17.5\ngini = 0.5\nsamples = 16\nvalue = [8, 8]"] ;
330 -> 331 ;
332 [label="X[12] <= 5677.5\ngini = 0.3967\nsamples = 11\nvalue = [8, 3]"] ;
331 -> 332 ;
333 [label="X[25] <= 0.5\ngini = 0.1975\nsamples = 9\nvalue = [8, 1]"] ;
332 -> 333 ;
334 [label="gini = 0.0\nsamples = 1\nvalue = [0, 1]"] ;
333 -> 334 ;
335 [label="gini = 0.0\nsamples = 8\nvalue = [8, 0]"] ;
333 -> 335 ;
336 [label="gini = 0.0\nsamples = 2\nvalue = [0, 2]"] ;
332 -> 336 ;
337 [label="gini = 0.0\nsamples = 5\nvalue = [0, 5]"] ;
331 -> 337 ;
338 [label="X[19] <= 3.5\ngini = 0.2778\nsamples = 18\nvalue = [3, 15]"] ;
330 -> 338 ;
339 [label="gini = 0.0\nsamples = 1\nvalue = [1, 0]"] ;
338 -> 339 ;
340 [label="X[31] <= 0.5\ngini = 0.2076\nsamples = 17\nvalue = [2, 15]"] ;
338 -> 340 ;
341 [label="X[0] <= 1.0\ngini = 0.1172\nsamples = 16\nvalue = [1, 15]"] ;
340 -> 341 ;
342 [label="X[30] <= 0.5\ngini = 0.5\nsamples = 2\nvalue = [1, 1]"] ;
341 -> 342 ;
343 [label="gini = 0.0\nsamples = 1\nvalue = [1, 0]"] ;
342 -> 343 ;
344 [label="gini = 0.0\nsamples = 1\nvalue = [0, 1]"] ;
342 -> 344 ;
345 [label="gini = 0.0\nsamples = 14\nvalue = [0, 14]"] ;
341 -> 345 ;
346 [label="gini = 0.0\nsamples = 1\nvalue = [1, 0]"] ;
340 -> 346 ;
347 [label="X[8] <= 1.5\ngini = 0.1653\nsamples = 176\nvalue = [16, 160]"] ;
329 -> 347 ;
348 [label="X[15] <= 16.0\ngini = 0.5\nsamples = 8\nvalue = [4, 4]"] ;
347 -> 348 ;
349 [label="gini = 0.0\nsamples = 3\nvalue = [3, 0]"] ;
348 -> 349 ;
350 [label="X[18] <= 0.5\ngini = 0.32\nsamples = 5\nvalue = [1, 4]"] ;
348 -> 350 ;
351 [label="gini = 0.0\nsamples = 1\nvalue = [1, 0]"] ;
350 -> 351 ;
352 [label="gini = 0.0\nsamples = 4\nvalue = [0, 4]"] ;
350 -> 352 ;
353 [label="X[10] <= 1.5\ngini = 0.1327\nsamples = 168\nvalue = [12, 156]"] ;
347 -> 353 ;
354 [label="X[8] <= 2.5\ngini = 0.3068\nsamples = 37\nvalue = [7, 30]"] ;
353 -> 354 ;
355 [label="X[26] <= 0.5\ngini = 0.4938\nsamples = 9\nvalue = [5, 4]"] ;
354 -> 355 ;
356 [label="gini = 0.0\nsamples = 4\nvalue = [4, 0]"] ;
355 -> 356 ;
357 [label="X[19] <= 10.5\ngini = 0.32\nsamples = 5\nvalue = [1, 4]"] ;
355 -> 357 ;
358 [label="gini = 0.0\nsamples = 1\nvalue = [1, 0]"] ;
357 -> 358 ;
359 [label="gini = 0.0\nsamples = 4\nvalue = [0, 4]"] ;
357 -> 359 ;
360 [label="X[7] <= 42.0\ngini = 0.1327\nsamples = 28\nvalue = [2, 26]"] ;
354 -> 360 ;
361 [label="X[5] <= 2.5\ngini = 0.4444\nsamples = 3\nvalue = [2, 1]"] ;
360 -> 361 ;
362 [label="gini = 0.0\nsamples = 2\nvalue = [2, 0]"] ;
361 -> 362 ;
363 [label="gini = 0.0\nsamples = 1\nvalue = [0, 1]"] ;
361 -> 363 ;
364 [label="gini = 0.0\nsamples = 25\nvalue = [0, 25]"] ;
360 -> 364 ;
365 [label="X[4] <= 2037.5\ngini = 0.0734\nsamples = 131\nvalue = [5, 126]"] ;
353 -> 365 ;
366 [label="X[18] <= 2.5\ngini = 0.0601\nsamples = 129\nvalue = [4, 125]"] ;
365 -> 366 ;
367 [label="X[31] <= 0.5\ngini = 0.0333\nsamples = 118\nvalue = [2, 116]"] ;
366 -> 367 ;
368 [label="X[36] <= 0.5\ngini = 0.0175\nsamples = 113\nvalue = [1, 112]"] ;
367 -> 368 ;
369 [label="gini = 0.0\nsamples = 101\nvalue = [0, 101]"] ;
368 -> 369 ;
370 [label="X[15] <= 11.5\ngini = 0.1528\nsamples = 12\nvalue = [1, 11]"] ;
368 -> 370 ;
371 [label="X[22] <= 5.5\ngini = 0.5\nsamples = 2\nvalue = [1, 1]"] ;
370 -> 371 ;
372 [label="gini = 0.0\nsamples = 1\nvalue = [1, 0]"] ;
371 -> 372 ;
373 [label="gini = 0.0\nsamples = 1\nvalue = [0, 1]"] ;
371 -> 373 ;
374 [label="gini = 0.0\nsamples = 10\nvalue = [0, 10]"] ;
370 -> 374 ;
375 [label="X[34] <= 0.5\ngini = 0.32\nsamples = 5\nvalue = [1, 4]"] ;
367 -> 375 ;
376 [label="gini = 0.0\nsamples = 4\nvalue = [0, 4]"] ;
375 -> 376 ;
377 [label="gini = 0.0\nsamples = 1\nvalue = [1, 0]"] ;
375 -> 377 ;
378 [label="X[9] <= 2.5\ngini = 0.2975\nsamples = 11\nvalue = [2, 9]"] ;
366 -> 378 ;
379 [label="gini = 0.0\nsamples = 8\nvalue = [0, 8]"] ;
378 -> 379 ;
380 [label="X[8] <= 3.5\ngini = 0.4444\nsamples = 3\nvalue = [2, 1]"] ;
378 -> 380 ;
381 [label="gini = 0.0\nsamples = 2\nvalue = [2, 0]"] ;
380 -> 381 ;
382 [label="gini = 0.0\nsamples = 1\nvalue = [0, 1]"] ;
380 -> 382 ;
383 [label="X[6] <= 0.5\ngini = 0.5\nsamples = 2\nvalue = [1, 1]"] ;
365 -> 383 ;
384 [label="gini = 0.0\nsamples = 1\nvalue = [1, 0]"] ;
383 -> 384 ;
385 [label="gini = 0.0\nsamples = 1\nvalue = [0, 1]"] ;
383 -> 385 ;
386 [label="gini = 0.0\nsamples = 1\nvalue = [1, 0]"] ;
204 -> 386 ;
}